<?xml version="1.0"?>
<opencv_storage>
<stage1>
  <maxWeakCount>8</maxWeakCount>
  <stageThreshold>-9.9220025539398193e-01</stageThreshold>
  <weakClassifiers>
    <_>
      <internalNodes>
        0 -1 37118 -7.9442863352596760e-05</internalNodes>
      <leafValues>
        5.9771209955215454e-01 -5.8803987503051758e-01</leafValues></_>
    <_>
      <internalNodes>
        0 -1 44070 5.6543474784120917e-04</internalNodes>
      <leafValues>
        -4.9981471896171570e-01 4.0606197714805603e-01</leafValues></_>
    <_>
      <internalNodes>
        0 -1 47248 -2.9485614504665136e-04</internalNodes>
      <leafValues>
        4.1117390990257263e-01 -5.0108522176742554e-01</leafValues></_>
    <_>
      <internalNodes>
        0 -1 6958 3.6780121736228466e-03</internalNodes>
      <leafValues>
        -3.4430682659149170e-01 5.5964332818984985e-01</leafValues></_>
    <_>
      <internalNodes>
        0 -1 69423 -9.4106690958142281e-03</internalNodes>
      <leafValues>
        -8.2879936695098877e-01 1.8459053337574005e-01</leafValues></_>
    <_>
      <internalNodes>
        0 -1 64146 3.8626109017059207e-04</internalNodes>
      <leafValues>
        -5.8623486757278442e-01 2.9403924942016602e-01</leafValues></_>
    <_>
      <internalNodes>
        0 -1 41975 3.0757203698158264e-02</internalNodes>
      <leafValues>
        1.9038151204586029e-01 -8.9784407615661621e-01</leafValues></_>
    <_>
      <internalNodes>
        0 -1 31407 -1.5385660342872143e-02</internalNodes>
      <leafValues>
        -8.2636409997940063e-01 2.4835902452468872e-01</leafValues></_></weakClassifiers></stage1>
</opencv_storage>
