<?xml version="1.0"?>
<opencv_storage>
<stage6>
  <maxWeakCount>11</maxWeakCount>
  <stageThreshold>-8.7249171733856201e-01</stageThreshold>
  <weakClassifiers>
    <_>
      <internalNodes>
        0 -1 37797 -9.4343139789998531e-04</internalNodes>
      <leafValues>
        -5.3727507591247559e-01 4.7987884283065796e-01</leafValues></_>
    <_>
      <internalNodes>
        0 -1 51793 3.6140056326985359e-03</internalNodes>
      <leafValues>
        -2.9936301708221436e-01 4.5302736759185791e-01</leafValues></_>
    <_>
      <internalNodes>
        0 -1 41748 4.7568013542331755e-04</internalNodes>
      <leafValues>
        -2.8286457061767578e-01 3.9486742019653320e-01</leafValues></_>
    <_>
      <internalNodes>
        0 -1 52481 5.4736033082008362e-02</internalNodes>
      <leafValues>
        -1.5743392705917358e-01 8.0000668764114380e-01</leafValues></_>
    <_>
      <internalNodes>
        0 -1 32640 -3.4113164292648435e-04</internalNodes>
      <leafValues>
        1.8575905263423920e-01 -6.5754181146621704e-01</leafValues></_>
    <_>
      <internalNodes>
        0 -1 32933 -1.6194091876968741e-03</internalNodes>
      <leafValues>
        -7.6192146539688110e-01 1.4965826272964478e-01</leafValues></_>
    <_>
      <internalNodes>
        0 -1 33946 -3.0782709363847971e-03</internalNodes>
      <leafValues>
        5.1647949218750000e-01 -2.3136492073535919e-01</leafValues></_>
    <_>
      <internalNodes>
        0 -1 12609 -9.5962537452578545e-03</internalNodes>
      <leafValues>
        7.0510953664779663e-01 -1.8198573589324951e-01</leafValues></_>
    <_>
      <internalNodes>
        0 -1 30983 2.9634976759552956e-02</internalNodes>
      <leafValues>
        1.7038385570049286e-01 -8.8229578733444214e-01</leafValues></_>
    <_>
      <internalNodes>
        0 -1 69618 1.3766228221356869e-04</internalNodes>
      <leafValues>
        1.6407564282417297e-01 -6.7135018110275269e-01</leafValues></_>
    <_>
      <internalNodes>
        0 -1 42323 -2.0138487219810486e-02</internalNodes>
      <leafValues>
        -8.6604750156402588e-01 1.0205785185098648e-01</leafValues></_></weakClassifiers></stage6>
</opencv_storage>
