<?xml version="1.0"?>
<opencv_storage>
<stage4>
  <maxWeakCount>10</maxWeakCount>
  <stageThreshold>-9.4153332710266113e-01</stageThreshold>
  <weakClassifiers>
    <_>
      <internalNodes>
        0 -1 41619 1.1035006027668715e-03</internalNodes>
      <leafValues>
        -1.3696059584617615e-01 6.4014685153961182e-01</leafValues></_>
    <_>
      <internalNodes>
        0 -1 38426 -5.6710478384047747e-04</internalNodes>
      <leafValues>
        -7.1615028381347656e-01 2.5588768720626831e-01</leafValues></_>
    <_>
      <internalNodes>
        0 -1 37805 -4.6144197694957256e-03</internalNodes>
      <leafValues>
        -8.8057756423950195e-01 1.3507583737373352e-01</leafValues></_>
    <_>
      <internalNodes>
        0 -1 26161 -2.1182787604629993e-03</internalNodes>
      <leafValues>
        2.6924848556518555e-01 -4.7921079397201538e-01</leafValues></_>
    <_>
      <internalNodes>
        0 -1 42589 -4.7540706873405725e-05</internalNodes>
      <leafValues>
        1.9481180608272552e-01 -6.2700784206390381e-01</leafValues></_>
    <_>
      <internalNodes>
        0 -1 77355 -4.8022164264693856e-04</internalNodes>
      <leafValues>
        3.6036771535873413e-01 -3.3903920650482178e-01</leafValues></_>
    <_>
      <internalNodes>
        0 -1 37803 1.6891928389668465e-03</internalNodes>
      <leafValues>
        1.3756431639194489e-01 -8.8594031333923340e-01</leafValues></_>
    <_>
      <internalNodes>
        0 -1 70452 3.8062222301959991e-04</internalNodes>
      <leafValues>
        -5.3134131431579590e-01 2.0749028027057648e-01</leafValues></_>
    <_>
      <internalNodes>
        0 -1 70304 4.5139761641621590e-03</internalNodes>
      <leafValues>
        1.0201399028301239e-01 -8.5208433866500854e-01</leafValues></_>
    <_>
      <internalNodes>
        0 -1 32736 2.3634057492017746e-02</internalNodes>
      <leafValues>
        -1.9734695553779602e-01 7.1916246414184570e-01</leafValues></_></weakClassifiers></stage4>
</opencv_storage>
